7 100
the 0.0024796 -0.0005234 -0.0029732 0.00097258 0.0048706 0.0026255 -0.00061626 0.0015992 0.003255 -0.0034618 0.0012979 -0.0007871 0.00026229 0.00050927 0.0010546 0.00017967 -0.0039704 -0.003066 -0.0016387 -0.001731 0.0028084 -0.0046576 0.0028657 -0.00079668 0.0030246 -0.0025465 -0.00065341 0.0015082 -0.0023827 0.004429 -0.00025052 -0.00031012 -0.0023504 -0.004117 -0.0023042 0.00057776 -0.0012833 0.00051008 0.0010072 -0.0009496 0.0035853 0.0033287 0.0011188 0.00031895 0.00032218 0.0012722 -0.0013697 -0.0029954 -0.003471 0.0012212 0.0011161 0.0027097 0.00015211 0.0026603 9.56e-05 0.00054461 -0.0036107 0.0012748 0.0031899 8.2106e-05 -0.00052561 0.0023226 -0.0018598 -0.0023245 -0.0014671 -0.0014921 -0.0034689 -0.0013424 -0.0014599 0.0025124 -0.0016594 -0.0013527 0.00088142 -0.0024955 0.001009 -0.0010393 0.0057232 0.00090924 0.00065568 -0.0048377 0.0013093 0.0010003 0.00092807 -0.00089983 0.0011429 0.0018699 -0.0016575 0.0024752 0.000794 0.0012567 0.0052552 0.0030869 0.00082364 -0.0027828 0.00024477 -0.001686 -0.00054173 0.00052042 -0.0011011 -0.0010658 
a -0.0013099 0.0069482 0.00076666 -0.0068599 0.0068439 0.0053131 0.00013949 -0.0011722 -0.00093097 -0.0025755 -0.0035059 0.0014215 -0.0015034 0.0056834 -0.0021468 -0.0082361 0.0027579 0.0076561 0.00075204 -0.00038966 -0.0051494 0.0040307 0.0015942 0.0024061 -0.00040229 -0.005616 -0.0080066 0.0043672 0.0017632 -0.0044544 -0.0022344 -0.0018625 -0.0025308 -0.007277 -0.0049696 -0.0043829 -0.003991 0.0011865 0.003653 -0.0050654 -0.0096921 0.0053121 0.0022953 -0.0009287 0.0023225 -0.0037602 0.00032777 0.0015929 -0.0034523 -0.0021535 -0.00046567 -0.00068882 -0.0015208 0.0013677 -0.00325 0.0060481 -0.0054051 0.0015137 0.0084755 0.00045652 0.0026148 0.0043518 -0.0018914 0.00053684 0.0039558 0.00092144 -0.00045834 0.00099645 -0.0024247 -0.0019954 -0.00018561 -0.0016383 0.0056132 -0.00072917 -0.0061575 0.00033711 0.0012692 -0.00025787 0.0030607 0.0052619 -0.0024208 -0.0010355 0.0002812 -0.0001603 0.00048694 0.0029108 0.0037564 -0.0026596 -0.001644 0.00026714 -0.00023531 0.00339 0.0032554 -0.0016165 0.0087089 0.0040864 0.0025274 0.00086795 -0.0045642 -0.0074798 
of 0.0035232 -0.0021378 -0.0028909 -0.0025286 0.0019105 -0.0033064 -0.00048475 -0.0067342 0.0019595 0.00046129 -0.0059642 -0.0035172 -0.0012455 -0.0064925 -0.002096 0.0035541 0.0038162 -0.0019553 -0.0062484 0.0033334 0.002031 0.0026182 -0.0043025 0.00042172 0.0012921 0.0018285 -0.0014743 -0.0083463 -0.0011635 -0.0018253 -0.003147 0.004867 0.0010323 -0.0031291 -0.0017545 -0.0009401 -0.00064208 0.00037285 0.0054182 0.0070385 -0.0049891 0.0030516 0.0015091 -0.0035769 0.0016595 0.0048439 0.00028448 -0.0026761 0.0030009 0.0030375 -0.001624 -0.0028249 0.00073093 -0.00090812 -0.0026971 -0.0036344 0.0044685 6.896e-05 -0.0046402 0.00057841 0.0020036 -0.0014801 -0.00060525 0.0083975 -0.0019973 -0.0020729 -0.0066369 -0.0043347 0.00014552 -0.00088518 -0.00033874 0.0032809 -0.0010354 -0.0011702 -0.0052354 0.0050757 -5.9097e-05 0.00059395 -6.7752e-05 -0.0038863 0.0039284 -0.0026893 -0.0017478 0.0013375 -0.0040129 0.0013585 -0.0021892 -0.0013586 0.0056811 -0.0021689 -0.0032519 -6.514e-05 -0.00086591 -0.0032771 -0.0016831 0.0014225 -0.00036156 0.0049376 -0.0017065 0.003121 
</s> 0.0018929 -2.3278e-05 -0.0026196 0.00038936 -0.0027144 0.0021551 -0.0018438 0.0010475 0.002109 0.0017371 0.0003341 -0.00054692 -0.00011406 0.0025573 -0.00066668 -0.0024518 0.0013922 -0.0012597 0.0016365 -0.0017802 -0.00088892 0.0016544 0.00075866 -0.0014657 0.002164 0.0004472 0.0017754 -0.0032227 -0.0010982 0.00026596 0.0031519 0.0031849 0.0027932 0.0035762 -0.0027097 0.00032372 0.0039804 -0.0008927 0.0032289 0.0011185 0.001595 -0.00023927 0.00039507 1.8192e-05 -0.0013392 0.00042705 -0.0014333 -0.00089708 0.0017074 0.0021275 0.0011464 -0.00086583 0.00045838 -0.0019621 -0.00090408 -1.1265e-05 0.001841 0.0010774 0.00056356 0.0014848 0.0010496 -0.00011265 0.0012726 0.0011538 -0.0003348 0.00039359 -0.00066961 0.00047744 0.0014515 -0.00052058 0.00015248 0.0013215 -0.0010832 -0.0025772 0.0023285 -0.00093797 0.0022092 0.0014102 -7.7508e-05 -0.0021599 -0.0018266 0.00036696 -0.00095561 0.00012057 0.00082853 0.0022833 0.0013627 -0.0010821 -0.00057185 -0.001231 -0.00048714 0.00016811 0.00075806 -0.0013738 0.00015421 -0.0033483 -0.00076082 0.00069387 0.0032876 -8.6863e-05 
is 7.6133e-05 0.0032315 0.0014805 0.00046097 0.0038889 0.0040111 -0.0023649 -0.0014447 0.0019746 0.0018319 0.00077518 8.7479e-05 -0.0018761 -0.0047017 -0.0033411 0.0046355 -0.0026572 -0.0004336 -0.0047082 -0.0013444 0.0027509 -0.002189 -0.00031815 -0.003706 0.0066197 0.0044478 0.0023637 0.00079277 0.0049479 -0.0006976 -0.00022324 -0.0017635 0.0011788 -0.0045916 -0.0025882 0.0045599 -0.0037645 0.00042373 0.0012815 -0.00057877 -0.0070032 -0.0011668 0.0023641 0.004777 0.0027839 -0.00075798 -0.0049286 0.00096449 -0.0037202 -0.0013108 -0.002174 0.0056629 -0.0031003 -0.00089454 0.0011326 0.0030112 -0.0026668 0.0026134 -0.00057974 -0.00014741 0.00097134 1.7877e-05 -0.00079151 0.0006167 -0.0011135 0.0003553 0.0020909 -0.0029214 2.2902e-05 0.0013239 -0.0058528 0.0040395 -0.0010025 0.0048708 -0.0018252 0.0013729 -0.002637 -0.0057191 0.001122 -0.0022409 -0.0048142 -0.0013103 -0.002014 0.0024133 -0.00034494 -0.00045183 0.001415 0.00047405 0.0011697 0.0012977 -0.0029823 -0.00081058 0.0061293 0.0032363 -0.0027171 0.0048735 0.0012056 0.00012373 -0.0032 0.00021004 
in 0.0052276 0.00020905 0.0023636 -1.007e-06 -0.0029791 -0.00011504 0.00038913 -0.0031943 -5.3582e-05 -0.00095675 -0.001559 -0.00063871 -0.0040628 0.00095507 -0.0014345 -0.0036061 0.00029096 0.00060778 -0.00073956 0.001856 -0.0044028 0.0050215 0.0036874 -0.0020992 0.0031945 0.001942 -0.0041082 -0.00088163 -0.0040949 -0.0026737 -0.00068793 0.0040037 -0.0037006 -0.00087966 0.0030041 0.0030603 0.00089741 0.0040779 -0.0037819 0.0055275 0.0016303 -0.0017653 -0.0036618 0.0015107 0.00045107 -0.0056878 -0.0038334 -0.0015526 -0.00097856 0.0053992 0.00022045 -0.0013912 -0.0023408 -0.00088884 0.0010269 -0.0036792 0.0047046 -0.0052098 4.1553e-05 -0.0062598 -0.0014399 -0.0027318 0.00048301 6.0273e-05 -0.00065736 0.003324 0.0038229 -0.0020304 -2.8241e-05 0.0020303 -0.0004398 0.0040098 -0.0019527 0.0012673 0.0015118 0.0025399 0.0015673 -0.0017453 -0.001612 -0.0030885 0.00034919 0.0028413 0.0047224 -0.00011595 0.003387 0.00054534 -0.0022659 0.003084 0.0012975 0.0024546 -0.0024552 -0.0029142 -0.0031925 0.0040497 -0.0010434 0.0027725 -0.0049492 -0.00095123 0.00052894 0.0023038 
film -0.0028757 -0.00045422 0.0022386 -0.00090304 3.9069e-05 0.00059557 0.00049143 -0.0017453 0.00045427 -0.0021653 5.7472e-06 -0.00066746 -0.00078181 -0.0027633 -0.0010108 -0.0011499 0.00056038 0.00049314 0.0016579 -0.00091259 0.0002396 0.00074176 -0.0015905 -0.0014232 0.00057528 -0.0017129 -0.00021518 -0.0041806 0.0015254 0.0026785 -0.0034518 -0.0012068 0.00048302 0.0011253 0.0024199 0.0023376 0.0014955 0.0012883 -0.00042521 -4.1377e-05 0.00066747 -0.0021312 0.0011724 -0.0010642 0.0017183 -0.00078617 0.001341 -0.0021683 0.0016411 -0.0032345 0.0027448 0.0016549 -0.0019088 -0.00059709 -0.0021156 0.00062186 -0.0028581 0.00021998 0.0010078 -0.0012722 8.2225e-05 0.0009113 -0.00029105 -0.00043616 0.0046905 -0.0025757 -0.0046228 -0.0017651 -0.00087813 0.0032373 -0.00011461 0.0020039 -0.0021207 -0.0027722 0.0013454 -0.0015515 0.0013198 -0.001439 0.00038418 0.00082917 -0.00011113 0.0012084 -0.00060749 0.00022977 7.9222e-05 -0.0012761 0.0021858 9.6555e-05 0.0001597 0.00063981 -0.001118 0.0018315 0.0004776 0.0040303 -0.0026594 0.00040326 0.00027824 -0.00020252 0.0033657 -0.00042614 
